     -0.0725169285
      0.4759280631
     -0.5802313486
      0.1572939829
      0.5205901441
      0.8007845040
      0.8712092709
      0.6151327155
     -0.4947328064
     -0.1835808622
     -0.3532796845
     -0.2210754186
      0.7052032879
     -0.6457463734
      0.0522094854
      0.3755834833
     -0.1205419775
     -0.6718506108
      0.0634656541
      0.0002055059
     -0.3994297302
     -0.7727958647
     -1.0452526720
     -0.4431383878
     -0.6198631745
      0.5587373661
      1.0866816737
     -0.8841210611
     -0.0009849933
      0.1654939542
     -0.0215383908
     -0.2556282170
      0.0214050646
     -0.7500986630
     -0.4864762673
     -0.2981041632
      0.3736084035
      0.0177614858
      0.0026637433
     -0.0267623606
     -0.5785998394
      0.2481515795
      0.8476267719
      0.2625038170
     -0.0164780997
      0.3318401338
      0.2702047035
     -0.1696102340
      0.0560975666
     -0.2676536154
     -0.2765130882
     -0.4429190497
      0.0947329179
      0.4257452210
     -0.4184373493
      0.2403794642
      0.4413941891
     -0.1335019209
     -0.0180017758
     -0.3422435922
     -0.4743802707
     -0.2797839382
      0.4603206118
      0.1916498295
      0.0110267724
     -0.1760470622
     -0.0542593056
      0.0244562523
     -0.0040397501
      0.2567301726
     -0.6465646215
     -0.2106768918
      0.1375434931
      0.6527893208
     -0.1019106013
     -0.2579118013
      0.2349967393
      0.3871727395
      0.7484071477
      0.1647023577
      0.4112220164
     -0.4209510010
      0.5162624848
      0.1098666920
     -0.4262109265
      0.4536798611
     -0.0720025610
     -0.6061685641
      0.2533579483
     -0.9451353286
      0.1971453224
     -0.0702445234
      0.1436149299
     -0.3215081286
      0.1734738166
     -0.6257293785
      0.0859852493
     -0.0041950485
     -0.0866755677
      0.4106766537
     -0.3372234591
     -0.2656594951
      0.3319733234
      0.5559978203
     -0.0775177722
     -0.2484218127
     -0.1068014081
      0.0612242001
     -0.5946868237
     -0.0581488383
      0.0770515518
      0.2722032167
     -0.1767871373
     -0.3085061351
      0.3972826189
      0.5050301234
      0.5836128729
     -0.3296819307
      0.4441325422
      0.1327816438
      0.2867760688
     -0.0366912152
      0.0230157210
      0.1187645962
      0.6213511744
      0.5270413954
     -0.6388869854
      0.0593953331
     -0.0678857553
      0.0130721362
      0.2135643366
      0.4194734684
     -0.0969396138
      0.4275884759
      0.6548932990
      0.8210622957
      0.0455734862
     -0.2126316142
      0.3594150024
      0.3596145922
      0.7937535765
      0.0042357167
     -0.5976126297
     -0.4277131550
      0.2328775573
     -0.0943805842
     -0.0192542087
      0.2493210316
     -0.0539463412
      0.2992382379
      0.1340776274
     -0.2453933965
      0.8476049217
      0.2282328669
     -0.8364834820
     -0.8472081541
     -0.7948791587
     -0.5272671519
      1.0486185229
     -0.2841633032
      0.2471811010
      0.3815663822
      0.6051514270
      0.0132376655
     -0.1439614660
      0.2739326439
      0.0363873969
      0.4427969601
     -0.2652460668
      0.1326835592
     -0.0974593715
      0.2790235721
      0.1032368641
      0.0088279471
     -0.0012955753
      0.6811733351
      0.2266855159
      0.0707711470
     -0.4326649091
      0.3306609602
     -0.6359354995
     -0.2083994933
      0.4423341975
     -0.6262537661
      0.2341251898
      0.7124198604
     -0.1615196298
     -0.1607923829
      0.1658575921
      0.2460848130
      0.5386078456
     -0.0983518404
      0.2493909635
     -0.5755175198
     -0.5526533836
     -1.0885025002
      0.4970039105
      0.7691787231
     -0.3324461728
     -0.3502432869
      0.6695933813
      0.6768550413
      0.3619999927
      0.3135714762
     -0.0389327589
      0.0976609836
      0.4431057036
     -0.3969672082
      0.3520945661
     -0.1908085739
      0.6035777275
      1.0466501738
     -0.4062530866
      0.0259981305
      0.1046569617
      1.5672893000
     -0.0931428175
     -0.0065389921
     -1.5063331947
      0.2995208783
      1.2759112225
      0.5257182325
      1.0155067905
     -0.0042616815
      0.2867468503
      0.1290460162
     -0.1150935123
     -0.2030782599
      0.0404283523
      0.0697453652
     -0.0590724427
     -0.2591769716
     -0.3073472812
      0.1511382760
      0.1780695307
      0.3171632090
      0.0044644027
      0.1907844145
      0.0983564431
     -0.0173232515
      0.0089001451
      0.3319705633
      0.0035323264
      0.3032300117
     -0.1918529447
     -0.2170149951
      0.2627829284
     -0.1556961786
     -0.3011148339
      0.2805125682
     -0.1418477296
      0.0967060101
     -0.3248859275
      0.5191879069
      0.2449455163
      0.0396439492
     -0.2249935314
      0.2208398686
      0.2616996328
     -0.8131435504
      0.7065291349
     -0.7092454300
     -0.4643610847
      0.5348200272
     -0.1973176523
      0.0390799135
      0.5030469714
      0.0277270222
      0.3347102997
     -0.0086186245
      0.0323648820
      0.3053494295
     -0.1717225320
     -0.0262328700
      0.1655101792
     -0.2085982715
      0.4998922085
      0.7107561159
     -0.3277460336
      0.4687693504
      0.4469603028
     -0.1367674888
      0.0531218971
     -0.5519802947
     -0.2348089803
     -0.2690830034
     -0.2622569536
      0.2101528150
     -0.0516965614
     -0.1492952427
      0.2132002783
     -0.2685800171
      0.3297791544
     -0.2591094904
     -0.3368793181
      0.0418877482
     -0.3085252909
     -0.1678094720
     -0.1869318372
      0.0551878954
     -0.0922201542
     -0.0614971844
     -0.0076651286
      0.4785127484
      0.2319144627
     -0.1987329046
     -0.1711703331
     -0.0725222506
     -0.0770895517
     -0.1662129511
      0.1804628447
      0.0061804617
      0.1145531944
      0.1341781142
      0.2907855574
      0.0341969082
     -0.0492578990
      0.2056429077
     -0.1708333241
     -0.5153652321
      0.0664070615
      0.2198611936
     -0.2058857670
      0.5450808409
     -0.0037172467
      0.2618723567
      0.2547835447
      0.3294943187
      0.1900715837
     -0.1158493094
     -0.4023441662
     -0.0957288649
      0.0394281109
      0.0950037009
     -0.2324085731
     -0.0568215349
      0.4635992108
     -0.0818689911
     -0.0186094801
      0.2037049040
     -0.2772709313
      0.0495494219
     -0.4084585572
      0.1903763558
      0.4027848852
     -0.3535759588
     -0.1181117494
      0.8871785864
     -0.5465944477
     -0.3506734920
     -0.0406488452
     -0.6335383358
     -0.4677290760
      0.3139163450
     -0.1509717602
     -0.1025044233
      0.2444789299
     -0.3059424457
     -0.2814445321
     -0.1186797312
      0.1405262890
      0.3745010008
     -0.1779016225
     -0.1111657216
      0.3643587555
     -0.2310859088
      0.4722958584
      0.7399656226
     -0.3333366188
      0.0745322082
      0.4753353196
     -0.2793260180
     -0.1267841637
     -0.5882590164
     -0.2838292059
     -0.1510867619
      0.0399759435
      0.0416791579
     -0.0595890017
     -0.0790199994
     -0.1206376184
     -0.2238611094
      0.1899553679
     -0.2432049869
      0.0103072520
      0.0413024473
     -0.1580601317
     -0.4490489648
     -0.0043997448
     -0.0418020114
      0.0245677397
      0.0971980753
     -0.1520940425
      0.3487536659
      0.5225003715
     -0.0493531134
     -0.1357944915
     -0.0468967697
     -0.4777923847
      0.2758950148
     -0.1684328929
     -0.4746110975
      0.1184457360
      0.4190424181
      0.1785970525
      0.2827841834
     -0.3556761863
      0.0587696093
     -0.2175987855
     -0.2474761894
      0.3803884602
      0.1986494496
     -0.2814387158
      0.3061401131
     -0.4274162094
      0.3177610572
      0.2484039779
      0.4277482596
      0.2467282594
     -0.0322998413
      0.0255623621
      0.1788451066
     -0.3522857398
      0.0732238874
      0.0739470431
      0.5236330036
      0.1639399859
     -0.3351399777
     -0.1134480525
      0.0566658850
     -0.0921861682
     -0.0160209669
     -0.3504304087
      0.2669990008
     -0.4835897816
     -0.8166584913
     -0.2028993196
      0.5108397480
     -0.4226210464
      0.3039367679
     -0.4058655142
     -0.4118354596
     -0.3608902393
      0.0509224167
     -0.0602653780
     -0.0946321042
      0.5283713504
     -0.4120373618
     -0.3572536294
     -0.0351866131
      0.0542056026
      0.1680350118
     -0.2912888905
      0.0617479822
     -0.0499395951
      0.0138406471
      0.3163878817
      0.2958773098
     -0.1269515871
     -0.1821940210
      0.4987126850
      0.0154674906
     -0.0279222940
     -0.5773226911
     -0.2973553663
      0.1171654834
     -0.0020683054
      0.0394341801
      0.0289424496
      0.0122106293
      0.0590366453
     -0.0671577807
      0.0890429216
      0.2177996077
     -0.1927702078
     -0.2726781708
     -0.3542207761
     -0.0716720092
      0.0021595190
      0.1257587393
      0.0769303439
      0.2964523006
     -0.0942186512
     -0.2207089558
      0.7218331709
     -0.6491081854
      0.3443715162
      0.1694260235
     -0.2417822431
      0.1591509385
     -0.1059051449
     -0.6729842204
      0.0007060779
      0.1428642255
      0.2966026729
      0.3507498231
      0.0303451032
     -0.0843845635
      0.1146205803
     -0.1867185285
      0.1051549511
     -0.2466825523
     -0.5245629145
      0.5437887300
     -0.0608262730
      0.2595826800
      0.4776374468
      0.4943497382
      0.3855593914
     -0.0685956040
      0.7634906767
      0.1849283078
     -0.3179455602
      0.2607586894
     -0.3335167511
     -0.3802078055
      0.1729347324
      0.0279121098
      0.1166443339
      0.0945933541
     -0.1964512821
     -0.0296613369
      0.4737601976
      0.5103699100
     -0.5447656195
     -0.3752200888
      0.5256457602
      0.5032101283
     -0.0769308610
      0.4948281890
      0.4741378815
      0.1983225487
      0.0749453428
     -0.5821438079
      0.3672858207
      0.1914541096
      0.0583718249
      0.2342992879
     -0.0311966297
      0.5465967056
     -0.1064809687
     -0.8627146706
     -0.0928021842
     -0.1470796529
      0.0487842036
      0.4155139962
      0.2259926267
     -0.4340669509
      0.0931340036
     -0.2406988080
      0.2204352861
     -0.2284193965
     -0.1381282774
     -0.0123300309
      0.3535127291
      0.2551305222
      0.1433489940
      0.2202556771
     -0.2934772796
     -0.0454324421
     -0.5610814180
      0.0300382412
     -0.2723305000
     -0.0794813002
     -0.3408890135
      0.1409582279
     -0.0865706777
     -0.2546861920
     -0.2188626158
      0.0406950907
     -0.2218116194
      0.0971322972
      0.1038937606
     -0.8239128901
      0.0184998353
     -0.9916995531
      0.4044066583
      0.6298165765
     -0.3441351542
      0.2636501145
      0.1441707020
     -0.3457116114
      0.4896822094
     -0.0593484047
      0.8454430727
      0.3174310014
     -0.0125326991
      0.6452600268
      0.5268190723
      0.2643283557
     -0.0156173229
     -0.4742680359
      0.2506120443
      0.5044580556
     -0.0026863368
      0.2522944526
     -0.0746163040
      0.1972112780
     -0.0831993103
     -0.2274865188
      1.2240353573
     -0.1587837870
      0.1514486815
      0.4369613661
      0.4038747415
     -0.0783162947
      0.2000289045
     -0.0649608929
     -0.1813364965
      0.0524506377
      0.1683343486
      0.1184799482
      0.1053856283
      0.1911749775
      0.2107306506
      0.5922268935
      0.4294732890
     -0.1765828689
     -0.1199075973
      0.0934259561
      0.1010421535
     -0.0543018476
      0.2849830285
      0.0251686593
     -0.1475096593
      0.5676927127
      0.1704149990
     -0.3907612687
      0.1641878866
      0.5074627344
     -0.0877882724
     -0.1331883502
      0.0373676184
      0.2311699657
     -0.2009451159
     -0.2642777095
     -0.2235176021
      0.1260487811
      0.2380169608
     -0.3101747756
      0.3327105729
     -0.0109582262
      0.1244013565
     -0.3133123293
      0.2791904152
     -0.0321545136
     -0.2640075940
      0.0271710512
      0.1079273078
      0.1616822297
      0.2885356328
      0.2188686886
     -0.1748378972
      0.0108118760
     -0.1893708892
     -0.0735022102
     -0.0453067529
     -0.4977109047
     -0.4888182071
      0.0892610043
     -0.5625432561
      0.4401998335
      0.6583820277
      0.5394378574
      0.2144403383
      1.0182238310
     -1.0388798166
      0.6853048634
     -0.0007024914
     -0.0837348004
      0.1498083274
     -0.5042606654
     -0.1279038026
     -0.2633486421
      0.6089405670
      0.1788097507
     -0.4761143342
      0.5075719667
     -0.5986912221
      0.2233802814
      0.1733074337
     -0.0024108893
      0.1827058768
     -0.0439936997
     -0.1451195747
      0.0867529601
     -0.0603354046
     -0.3836875047
     -0.1219808404
      0.1012392400
     -0.0973588927
      0.1381601312
      0.8403739565
     -0.3686244925
      0.2426924441
      0.0863120967
      0.0605440983
     -0.0022768709
      0.1370729685
     -0.5416090649
      0.2705691043
     -0.2815388007
     -0.2770879782
      0.2486334158
      0.1495131433
     -0.1320399826
      0.3617043784
      0.0470567057
     -0.0436190287
     -0.0160997467
     -0.0873579071
     -0.1276036397
     -0.0733031196
     -0.0446234131
      0.1828118153
     -0.2277095108
      0.1871923590
      0.0778209172
     -0.1734629296
     -0.3783452392
      0.1548304317
      0.2087645506
      0.1389497937
     -0.0602635288
      0.2269857713
      0.0941651788
      0.2398981669
     -0.2075351152
     -0.3605523690
      0.1802736268
     -0.0299782414
      0.2312777971
     -0.0547473890
      0.1447130328
     -0.1761888408
     -0.0215983244
     -0.8338219923
      0.3782965531
     -0.0554613480
     -0.2732034769
      0.5579225272
      0.3469954131
      0.6051476645
      0.2157966757
      0.6110508055
     -0.3806623742
     -0.6488955220
     -0.0055866891
     -0.4481122275
      0.4331135292
     -1.2949393425
      0.1654582548
     -0.1224949631
     -0.1852065962
     -0.5633291312
     -0.2656257986
      0.8267998068
      0.4229166753
      0.9341534442
      0.0288223897
     -0.4315742798
     -0.4210497750
     -0.0710533713
      0.2326579796
     -0.1479007098
      0.0228300500
     -0.2591592063
     -0.0999285039
     -0.1469906053
      0.4598822948
     -0.0091248659
     -0.3156402132
     -0.2902931303
     -0.0740511433
     -0.9649250862
     -0.0003332982
     -0.1003043956
      0.1657450168
      0.0021372135
      0.0506608135
     -0.1486440977
      0.1475382856
     -0.6502451585
      0.2591379813
     -0.0914690167
     -0.4322823794
     -0.1791817432
     -0.1175957075
      0.4329599378
      0.2651318317
      0.1826109731
     -0.1391357811
      0.3635130014
      0.2429776676
     -0.1798577258
     -0.2792820033
      0.4981297639
     -0.4273028391
     -0.1487319145
     -0.2656028006
     -0.0726991795
      0.0591381262
     -0.0421955034
     -0.4146305613
     -0.0361963248
     -0.2363725032
     -0.2417752775
      0.1569356504
     -0.1346236142
     -0.4685974407
      0.3456073074
     -0.3255145669
     -0.1673277792
      0.3701015370
     -0.2415860649
      0.2054067803
     -0.1259432509
     -0.3254989547
      0.6933781455
      0.0636845959
     -0.0065603261
      0.4256669051
     -0.1089413635
     -0.1740781859
      0.0504666043
     -0.5060150995
      0.3844957671
     -0.3369969200
     -0.1214620519
      0.1195042848
     -0.2026493423
     -0.3248476949
     -0.2425715152
     -0.2059709871
     -0.1414406672
     -0.1736722617
     -0.3937663731
      0.5107661935
     -0.0052990942
     -0.0893454167
      0.3226265358
     -0.2473484731
      0.1242958937
     -0.3421308004
     -0.0788482660
      0.0404746815
      0.4360111894
      0.3290904234
      0.8276032586
      0.1389183400
     -0.4810054868
      0.1640847998
     -0.1296061782
      0.2833947783
     -0.2071531418
     -0.0990227253
      0.1269221474
     -0.3927481930
     -0.4403052265
     -0.1049193716
      0.1248082748
     -0.2108604379
     -0.0125448626
     -0.4672047331
     -0.0016453273
     -0.0389845632
     -0.4011513891
     -0.0037975290
      0.2993589861
     -0.3273702479
     -0.2245436225
      0.0854291572
      0.1226406525
      0.2621540418
      0.2332751061
     -0.0044893987
     -0.2491858299
      0.5596782003
     -0.3922973657
      0.0951529484
     -0.1473013271
      0.0729250572
     -0.0255983712
      0.0134878398
      0.1388897007
      0.0519852584
     -0.0204155165
      0.0223337835
     -0.1586566101
      0.0698280434
      0.5212425060
     -0.3536627567
      0.2428985704
     -0.4991770614
     -0.5012755442
     -0.1320238063
     -0.2498934336
     -0.1704706467
     -0.0230952419
     -0.2457883638
     -0.1643511186
     -0.0636752903
      0.1365208740
     -0.2845836899
     -0.2793109549
      0.2457280698
     -0.0585149216
     -0.1038301980
      0.0585157926
     -0.3720728566
     -0.0239958737
     -0.0135701420
     -0.3149383674
     -0.1660528015
     -0.3076688807
      0.6597195935
     -0.0994524741
     -0.3778193807
      0.3707757924
     -0.2765821536
      0.1074152963
      0.0870304631
     -0.0633661556
     -0.0514837475
     -0.5943851665
      0.0659480459
      0.1396802362
     -0.0408791819
     -0.3927497878
     -0.0946998611
     -0.3151323278
     -0.2963201817
     -0.4414977264
     -0.0341508368
      0.3946455911
     -0.1982647477
     -0.0876767918
      0.0921725496
      0.1299949322
      0.0501495713
     -0.1286359017
     -0.1967976528
      0.5915995457
      0.0942982567
      0.0810649065
     -0.1144192374
     -0.0902866869
     -0.0636033817
     -0.0858161205
     -0.1629151443
     -0.2338738152
     -0.0710796579
     -0.7520131509
      0.3396835108
     -0.9175759962
      0.3676080948
      0.1330147622
      0.2933270356
      0.3177687796
      0.1604576490
     -0.1400111062
      0.1042412148
     -0.4765926198
      0.1728866960
      0.1838454499
     -0.0327883423
      0.4506987237
      0.3085642700
      0.0809123754
      0.2304318475
     -0.0527738091
     -0.0382173979
      0.3545721134
      0.0778534030
     -0.3438815422
      0.1715784533
     -0.4025904656
     -0.1130766277
     -0.0073319086
      0.0871093229
     -0.2734916125
      0.0222501928
     -0.1817897515
     -0.3369037314
      0.2986201708
      0.0565057880
      0.1718974486
      0.4245495042
      0.5601177383
     -0.0447292338
      0.0309464634
     -0.2487009648
     -0.2113241505
      0.0001233747
     -0.2367482385
      0.1548647486
      0.4541648767
      0.3085708369
      0.2238309952
      0.3637428022
     -0.0128585397
      0.0248558002
     -0.1525008362
     -0.0190562065
     -0.1516719132
     -0.0974558083
     -0.0543445416
     -0.1174153819
      0.1525008202
     -0.2160107265
     -0.3214706115
     -0.0241838841
     -0.1625279928
     -0.4792129419
     -0.3072718592
     -0.2993873291
      0.4436673754
      0.4424476548
      0.4226897789
     -0.1886964709
      0.4070821496
     -0.4657883520
     -0.1599999032
      0.2285555230
     -0.2311255914
      0.8298703321
     -0.0175368201
      0.0265920379
      0.0781269592
     -0.0832801798
     -0.1856722556
      0.2613312137
     -0.3020558707
      0.0802749271
      0.3516547125
     -0.0000173291
     -0.6352686785
     -0.5025860194
     -0.5860988459
     -0.4110914037
     -0.5582034475
     -0.3815850846
     -0.8308323151
      0.0978361468
     -0.3666721769
     -0.5565077523
      0.9315922294
     -0.1534957169
      0.5860969132
      0.4453886174
      0.0529263085
     -0.7241358901
     -0.0122081678
      0.3257035419
     -0.2107859102
      0.2219401620
     -0.2614778896
      0.0727643563
     -0.2269536643
     -0.4058960808
     -0.1656859894
     -0.3258680867
      0.2230422537
     -0.0376002857
      0.0931881045
      0.0299393559
     -0.2503244947
     -0.6958027723
      0.4993312460
      0.4677100040
      0.3387365637
      0.1066738760
      0.1297978786
     -0.1912337995
     -0.1279478281
     -0.2062110410
      0.1920038942
     -0.8413338229
     -0.0594340481
     -0.2269450389
      0.2400438328
     -0.0252877827
     -0.3007839864
      0.2100336198
     -0.0358445346
     -0.3216321148
      0.2605596311
     -0.1567988593
     -0.2167819031
     -0.1569741872
     -0.0210107562
     -0.6749820403
      0.2212001986
      0.1724592678
      0.2515377632
      0.2145284214
      0.2859328940
     -0.3286120917
     -0.4255212769
     -0.2245455951
      0.7245977862
      0.6879740857
      0.6135814943
      0.0413997623
      0.3796457653
     -0.0497125760
     -0.1298653956
      0.3853031653
      0.0147697453
      0.2366186534
     -0.4703945258
      0.1096067941
      0.5476492665
      0.0282794181
     -0.3880488938
     -0.0069596465
     -0.2035926504
      0.1153490679
      0.2557828183
      0.2386165681
     -0.0312817874
     -0.1893834642
     -0.1265530077
     -0.2778335601
      0.0384721132
     -0.5551848724
     -0.4149269261
     -0.3258969259
      0.0294719719
     -0.2293814648
     -0.3170663115
     -0.5513050764
      0.5374592265
     -0.2463830180
     -0.0888550293
     -0.0375479268
     -0.0262793570
     -0.1733650383
      0.4925051661
     -0.1490885655
     -0.0224054551
     -0.2348625526
     -0.2787909479
      0.2158954341
      0.0745017634
     -0.7205596065
     -0.4967943587
     -0.1314759240
      0.1234405027
      0.1692242797
     -0.0817303796
      0.3727153887
     -0.4028696285
     -0.0477235251
      0.3082017965
      0.4533353479
      0.2797490216
      0.0285818607
      0.1094709375
     -0.0154514132
      0.0514589364
      0.1019233125
      0.2502593120
      0.1498204449
      0.5390525689
     -0.2020315329
      0.0928061497
     -0.7098344134
      0.1988283749
      0.2426357119
     -0.1090065749
     -0.3386330824
     -0.3860714840
      0.3202873124
      0.3730921106
     -0.3135742454
     -0.5858687321
     -0.0196480582
     -0.1618332141
      0.1858902474
      0.3191902536
      0.3929446223
      0.1544241678
      0.2459612248
     -0.3589902079
      0.0786830526
      0.5158457146
      0.3752974495
     -0.0323937443
     -0.1850750873
      0.2261204476
      0.5915541865
      0.0902355493
     -0.1979117142
      0.6072372360
      0.0998691986
     -0.2168656335
     -0.2453684772
      0.1934927386
      0.0171744841
     -0.9709955458
     -0.0141558044
     -0.2999752031
     -0.1589834139
      0.7953006609
     -0.1465688654
     -0.2837588923
     -0.1606984206
     -0.3363484437
     -0.2494271126
      0.3576698583
     -0.1730382383
      0.4931646875
     -0.0673060848
     -0.4661673223
      0.0540827355
      0.3741350936
      0.1020570587
     -0.1510476235
     -0.0197775081
      0.2408754504
      0.7875143565
      0.1530928307
      0.0471066812
      0.5215047288
     -0.2517802456
     -0.5411665957
     -0.3166433792
      0.1001866329
     -0.0953814042
     -0.2515412043
     -0.2276733608
      0.7285499646
     -0.1056107722
      0.5540934667
     -0.1916617899
      0.0062399661
     -0.3624404117
      0.2055935895
     -0.0212730694
     -0.0501205985
     -0.1635779543
      0.2124802561
     -0.3948377452
     -0.3220687772
      0.0728358087
      0.2585466180
      0.5810461314
      0.3171297962
      0.1290720098
      0.1600448254
      0.5179024429
     -0.0064362129
     -0.1825900579
      0.3747563975
     -0.1632141351
     -0.6853737381
     -0.4011538843
      0.0002294176
     -0.5778285051
      0.1407828529
     -0.2456536496
      0.1475179154
     -0.1419422966
     -0.2123192587
     -0.1104939410
     -0.2743177009
     -0.0181270225
      0.0393097004
      0.0476068463
     -0.1748925391
     -0.2463811730
     -0.0459194325
     -0.1193220730
      0.4112627293
      0.8184470011
     -0.1596232884
      0.8475396343
      0.1708661850
     -0.6281727263
     -0.5573051015
     -0.0949706556
     -0.5803034174
      0.4313260504
      0.3666524424
     -0.3862853358
      0.6514243729
      0.0326986212
      0.3409694389
     -0.0874254724
     -0.0516657266
     -0.5505137221
     -0.1944279697
     -0.0183991226
      0.1630291087
      0.1497349046
      0.2203339325
     -0.2293280536
     -0.0634995998
     -0.0222208346
     -0.0326841920
     -0.4066084883
      0.0964695777
      0.3414777891
      0.1918944886
     -0.1651724201
      0.3516103403
     -0.7404921745
      0.0908611800
      0.2350897176
     -0.0686540441
      0.5732334754
     -0.5324567971
      0.3368272242
      0.1878829402
     -0.3230626956
      0.0736042435
      0.2244581666
      0.0925004420
      0.1600745059
      1.4678387942
      1.4361520989
      0.6743139212
     -0.3225073913
     -0.2447219578
      0.8336344375
     -0.4055226212
      0.6942695763
      0.1402326618
      0.1497463707
     -1.2298278158
      0.0162922350
     -1.0113891069
      1.2240956524
      0.9007470988
      1.1200491185
      0.0176260067
     -0.2750681184
      0.3730580252
     -0.6521242202
     -0.7523592698
     -0.3198582067
      0.2471474016
      0.1163266076
      0.4082210866
     -0.2308829231
      0.1394780385
     -0.1904350580
     -0.2250796318
     -0.7779519962
      0.7829214035
     -0.5495033392
     -0.2381717194
     -0.2290628906
     -0.6948385390
     -0.1513822527
     -0.3570775311
      0.2764977060
      0.9428448332
     -0.5712320016
     -0.9101574421
      0.6750639785
      0.1743002882
      0.2606175279
      0.2231924578
     -0.8607920406
      0.4246727862
     -0.6853294254
     -0.7697510574
      0.5625627681
      0.3102639390
      0.8828513516
     -0.3202449118
     -0.0694371900
     -0.3443524859
      0.6033708412
     -0.1876743450
      0.1614835948
      0.5770376964
     -1.0388627945
     -0.4309061433
      0.7028262509
     -0.3088014183
      0.4008923524
      0.3872673099
      0.7257324744
      0.0452941869
     -0.3107734582
      0.5353571460
     -0.5542566760
      0.5683931594
      0.4367837121
     -0.4152078221
      0.2413581304
      0.3511501033
      0.9841515742
      0.2000969013
     -0.5478049912
     -0.3435967940
     -0.1976418220
     -0.2529701365
     -0.1593752269
     -0.7626157627
      0.1314715731
     -0.3005066876
     -0.3213919447
     -0.1122723598
     -0.2027113420
     -0.6538099183
      0.7001662831
     -0.9196586899
      0.6513985167
     -0.2884857497
      1.1581591395
      0.1216320080
     -0.3497966610
      0.0564972681
     -0.0330074877
      0.3589128046
     -0.8893104496
      0.7346088447
      0.4754031053
      0.8724138880
     -0.0155074717
      0.6093197493
      0.8600534855
     -1.2079361094
      0.0175018016
      0.1618979822
     -0.0433094332
      0.0566163174
     -1.2958078538
      0.2917842109
      0.0605220434
     -0.4354198633
     -0.1759159133
     -0.2283379358
      0.0555044622
      0.4645281847
      0.2004938576
      0.7226444585
     -0.8509673965
     -0.6940039670
     -0.0570926195
      0.8617159596
     -0.2886060398
      0.3764596540
     -0.6280445204
      0.9654525352
     -0.4047565267
      0.2665308032
     -0.4306935817
     -0.1667029851
     -0.0629413545
     -0.8722795740
     -0.0749139487
     -0.0633857403
     -0.6895381366
      0.9162895276
      0.2451579933
      0.2222025794
     -0.0817845125
      0.0009765211
      0.5942725262
     -0.5113202780
      0.3177366589
      0.3657976248
     -0.4920633695
      0.9183836606
     -0.7772313220
      0.3806227063
     -0.5092128117
     -0.2542169305
     -0.6631240023
     -0.1772497890
     -0.5297569229
      0.7422269085
     -0.2980812552
     -0.1725434768
     -0.5818263939
      0.4240209779
     -0.3583328463
      0.3012526034
     -0.5596129507
     -0.1914207868
      0.8153928273
     -0.1112449912
      0.3453974814
      0.4120724323
     -0.2485132101
      0.0220053616
     -0.4043948795
     -0.3915630144
      0.4186603613
      0.0961849343
     -0.2521143432
      0.3425498298
      1.1794105357
      0.4040579925
     -0.3897988816
     -0.2767032138
      0.6030952740
      0.3487732510
     -0.4049604195
      0.4427647893
      0.0607896128
     -0.1589818405
      0.3198647215
     -0.3775135284
     -0.6415971062
     -0.6934538506
     -0.1157813324
     -0.5228468787
      0.5300675683
     -0.1210939508
      1.0179435354
     -1.5406944856
     -0.2943917083
      0.0168046540
      0.6058066869
      0.2508947220
      1.0633342252
     -0.4639084023
      0.4996858534
      0.1336586221
     -0.8071999996
      0.3415673347
     -0.5148137880
      0.5449863382
     -1.2160091153
      0.3619555968
      0.7509017821
     -0.6958037506
      0.9723134094
      0.0797497138
      0.9135991293
     -0.0859051871
      0.3938783953
     -0.6792983825
     -0.3832536274
      0.0741895874
      0.6812444635
     -0.2853189016
      0.5565132173
      0.1730254888
      0.4673381565
     -0.3677999618
     -0.3953486024
      0.4168061413
      0.0332236338
     -0.3144398470
     -0.3610706522
     -1.0241625296
     -0.8410990603
     -0.2797147640
      0.4993768816
      0.2959437171
     -0.0498606351
     -0.8469278392
      0.6316002167
     -1.2899788158
     -0.6649890840
     -0.7371883470
     -1.1329192494
      0.9183244303
     -1.8521975909
      1.5599367306
      0.4136382437
     -0.1464783205
     -1.2079383279
     -0.2644779919
      1.5589865093
      0.7389202965
      1.5926704460
      0.5363995011
      0.0396829806
     -0.0567567664
     -0.0002433086
      0.0211226384
     -0.0369870592
     -0.1841413533
     -0.0115072251
      0.0108214022
     -0.1119462018
     -0.0258978310
     -0.0184684061
      0.0588736899
     -0.0245771215
      0.0346820055
     -0.0850257941
     -0.2774132902
