      0.0851533813
     -0.7344366098
     -1.5703624339
     -0.7119362869
     -0.1831881697
     -0.1204386888
     -0.8338251038
      0.9484954352
      0.0979941505
      0.6501308903
      1.0081906118
     -0.9010916254
      0.5149078980
      0.6936234308
      0.6172049761
      0.1828572071
      0.6277766706
      1.4262136650
      0.6768673593
     -0.6505097225
     -0.2087366693
      1.1724394786
     -0.5673995215
      0.2376982579
     -1.2173757658
     -1.4163979119
      1.1863086745
     -0.0036728698
     -0.9631738419
     -0.4371622745
     -0.3547893279
     -0.2122369526
     -0.9052419141
     -0.5608871323
      0.1014690940
      0.1548861546
     -0.3410672016
     -0.2323196629
     -0.0832643206
     -0.0796399154
      0.5620053820
     -0.1891251338
      0.1800874447
      0.5798923031
      0.0347238016
      0.2022336954
      0.3325586931
      0.4584825842
      0.6454765722
     -0.2490856390
      0.1172198736
      0.9513442825
      0.0629462669
      0.5288318008
     -0.2235224814
     -0.2154276672
      0.1964074861
     -0.2772782502
     -0.2056176371
      0.0259253353
      0.1323495602
     -0.0361476727
     -0.1027556496
     -0.0358463111
      0.6835764898
      0.3902867192
     -0.6833123477
     -1.1440003367
     -0.4923637887
     -0.8386779014
      0.4824204606
      0.3630231040
      0.4081522399
      0.1640423675
     -0.4929042474
      0.0580582717
     -0.0115431430
     -0.3761604364
     -0.2950165433
     -0.2005161920
      0.2203721775
      0.2527005188
      0.5055535876
      0.3812369262
      0.7141272232
      0.2009060031
     -0.3995375685
     -0.0429984093
      0.3225737637
      0.3771536706
     -0.1355900245
     -0.5245247946
     -0.0463783677
     -0.1216868366
      0.3335942139
      0.5175934445
     -0.0783030689
      0.0529416712
      0.1402378066
      0.1201423557
      0.3781751704
      0.0623938855
     -0.3514702251
      0.0874966622
      0.2490003061
      0.2498075861
     -0.6759616913
     -0.4015859757
     -0.2353018188
     -0.2233198730
      0.2329516005
      0.2349058768
      0.5969104180
      0.1943497325
      0.7066859127
      0.0663732768
     -0.4768341642
      0.0013966084
      0.4020341895
      0.6805430423
      0.0755432617
     -0.4056571164
     -0.7379017014
      0.1964532266
     -0.3789529474
     -0.7468393004
      0.2603434799
     -0.2656205144
      0.5159379665
     -0.8336818418
      0.8088747032
     -0.2711568246
      0.4545032373
     -0.3275685280
      0.0491733462
     -0.0027640638
      0.6260245152
     -0.2234667728
     -0.2778214406
      0.1091320300
      0.1765957247
     -0.5205286778
      0.4978627243
     -0.4131714543
     -0.4137196714
      0.4398588245
      0.0488132589
     -0.0255123585
      0.5933983202
     -0.3454141036
      0.1037517802
      0.0506884401
     -0.3884871208
      0.9397147219
     -1.3619359843
     -0.1959132396
     -0.1667151881
      0.0063979198
     -0.2441381465
      0.0594242341
     -0.0556247737
     -1.0125973721
     -0.3008180308
     -0.5402792942
     -0.0940681241
      0.0021846736
      0.3294328976
      0.8506046488
      0.3906783213
      0.1971799254
      0.3944404384
     -0.1390881206
     -0.2045093659
     -0.0559610505
     -0.2415855767
     -0.1295251709
      0.4443673556
      0.4341020016
      0.2836858366
      0.0772943449
      0.5700523044
     -0.9101509447
      0.0334497425
     -0.4401838854
     -0.0523095842
     -0.9220669199
     -0.3265367523
     -0.9687279947
     -0.2373905121
      0.0621225284
      0.0810070719
      0.9179094475
     -0.4011087857
     -0.5402099640
      0.0967400431
     -0.0426678233
      0.0051204702
      0.3563358122
      0.2603201395
     -0.0956335857
     -0.4379751654
      0.1396323314
     -0.1812528513
     -0.0436177594
     -0.3214252193
      0.6417256858
      0.0484160257
      0.2157527764
      0.4670424448
      0.4445489686
      0.0060059565
      0.3578704575
      0.9398997471
      0.8437807324
      0.9409117231
      0.7224744956
      0.2509480141
      0.8794777506
      0.3001184106
     -0.1537666856
      0.2741581393
     -0.3043273699
      0.9469836922
      0.2712625691
      0.0282836010
      0.2908375257
     -0.4856315621
      0.1245704602
     -0.1642692685
      0.6293037240
      0.2849591137
     -0.4882444669
      0.5248307134
      0.2446481103
     -1.0955939731
     -0.0081734154
      0.1879193947
      0.0717338982
      0.3261666122
      0.0608531280
     -0.0732763367
     -0.1701017429
      0.4593340975
      0.4078296122
      0.3418948685
      0.0558228772
      0.3332669693
     -0.6590009766
      0.1078765160
     -0.5220059996
     -0.1890393114
      0.4223509099
     -0.3153478047
     -0.0247377379
     -0.2090016295
      0.0277577697
     -0.5109282626
      0.3312687551
      0.5050717180
     -0.0763309516
     -0.0193437916
      0.2098608001
      0.0133535896
      0.2807672980
      0.2128147311
     -0.3131414222
     -0.1305545333
     -0.2396227810
      0.0767616959
      0.6615339574
      0.0490168998
      0.0318664279
      0.1534156789
     -0.0752038709
     -0.2740992938
      0.1184488802
      0.1934310461
      0.4939602650
      0.4424075268
     -0.0969715670
     -0.4112336224
      0.1592501160
     -0.1006149309
      0.3616997668
      0.1836964273
      0.0809661753
     -0.1849922808
      0.2183619974
     -0.1067602379
      0.1099541731
     -0.3959406796
      0.5677921442
     -0.5012287963
      0.0124261322
     -0.1503325152
     -0.7884312998
      0.1805867243
     -0.0803499020
     -0.3864548318
     -0.1986915612
     -0.1224049086
     -0.2414708133
      0.1130328762
      0.1095147747
      0.0955791601
      0.0772512751
      0.4481309498
      0.1883477475
      0.0372483452
      0.2453743459
     -0.1228629619
     -0.0789089229
     -0.2786991636
      0.0531756592
      0.2158267698
      0.1823359533
      0.2191329186
     -0.3737219310
     -0.4800728867
      0.0672129177
      0.0264021754
     -0.2600640032
      0.2882238762
      0.2693629112
     -0.1776792822
     -0.2034607085
     -0.2464116756
      0.2054020870
     -0.0195546456
     -0.2463876070
     -0.2034648411
      0.3296752384
      0.4693333718
      0.9337828516
      0.1130567459
     -0.3276314582
     -0.2244397634
     -0.3516509504
     -0.2656266192
     -0.3686423027
     -0.1902144330
      0.0681575097
     -0.4301795548
      0.3159679322
     -0.5459515850
      0.1421364781
     -0.4593550095
      0.1405264492
     -0.0552230403
     -0.2372917559
     -0.2368686859
     -0.1415121687
     -0.0178653076
      0.1644649387
     -0.1061985315
     -0.2958156299
     -0.0734740592
     -0.0563960226
      0.1295018658
      0.4744400664
     -0.1940033524
      0.2315458673
     -0.2956869853
     -0.3389973053
     -0.0337184259
      0.1003429209
      0.0537886848
      0.1556170397
      0.1787693215
      0.0250236395
     -0.1350018906
     -0.1242443724
      0.2078129354
      0.0629695219
     -0.1052130561
      0.1807228522
     -0.2415158317
      0.3524488895
      0.1014987875
      0.1000425528
     -0.0686670553
      0.6082562934
     -0.5247912881
     -0.5176379077
      0.1096497689
     -0.6314201605
      0.3877543090
      0.1353291202
     -0.2380004483
     -0.2341245119
      0.0726952947
     -0.2041912808
      0.0657799366
      0.4664126720
      0.2997129107
     -0.2098494299
      0.4428193491
     -0.0333091911
      0.0114857661
      0.2184746446
     -0.3293077450
      0.0050442323
     -0.5025637733
     -0.1198647288
     -0.1055823042
      0.2378887324
     -0.1431673298
     -0.2725819275
     -0.0208572365
     -0.2278082628
     -0.0132623474
     -0.3010147901
      0.0329903437
      0.1196262399
      0.0324439361
      0.1422870949
     -0.1901816652
      0.1327394741
     -0.1903438893
     -0.1236384679
     -0.4902117952
      0.5666585922
      0.3692544748
      1.0912893296
     -0.4340426137
     -0.2828903705
     -0.1733861738
      0.8101632226
     -0.2206323921
      0.5561758346
     -0.1355954691
     -0.5178279741
     -0.4118682064
      0.2184468762
      0.0733100836
      0.1171022865
      0.2952491364
     -0.0910473224
     -0.2297098665
     -0.1309074265
      0.0542171016
     -0.9280705864
     -0.5675790753
      0.8651088163
     -0.5362535221
      0.2052048873
     -0.0143361030
     -0.0078285857
     -0.2310589414
     -0.1253791256
     -0.0084078113
      0.1596922728
     -0.6180537550
      0.4860511113
     -0.5068442074
     -0.4551167627
     -0.3077754407
     -0.4368972578
     -0.3355310694
     -0.3845993567
      0.7064364180
      0.2549140759
      0.0698698532
      0.2991557838
     -0.1533746467
      0.1111385273
     -0.3073964949
      0.2662954437
      0.2388803031
      0.0094756104
     -0.4073724867
      0.3725095843
     -0.2028619715
     -0.4692657691
      0.0400823677
     -0.1061376437
      0.1417683705
      0.1004676478
     -0.0342085597
      0.0555300124
      0.1246537752
      0.2722530287
      0.4686815941
      0.3188264736
     -0.1697183202
     -0.1221902545
      0.0354026697
      0.0224158507
     -0.1597554542
     -0.0727032346
     -0.3575886375
      0.4291119745
     -0.4799561651
      0.0257602667
     -0.2738521262
      0.0709432344
      0.1841088765
     -0.1766918476
     -0.2631014415
     -0.2082950346
     -0.3290643765
     -0.3405291948
     -0.3586281016
     -0.1265163770
      0.0533301721
      0.3623753624
     -0.0160348177
      0.0070641228
      0.1501068624
     -0.1071267344
     -0.0707637979
      0.2675874049
      0.0130380659
     -0.0582856679
     -0.5482055377
     -0.7880747589
      0.2870783487
      1.1183399263
      0.0302128525
      0.0771092692
     -0.1138147603
     -0.4867589377
     -0.1026192625
     -0.0323096889
      0.1045216437
     -0.3979974031
      0.2894172541
      0.1178815360
     -1.7016217283
      0.1151424086
      0.7138477763
     -0.5913565510
     -1.2561577173
      1.4833506534
     -0.5716323840
     -0.1684755902
      0.0113657603
      0.3007776475
     -0.0145777503
      0.5645215991
     -0.2818281990
      0.3028634093
     -0.0487256960
      0.3726982875
     -0.2827268395
     -0.1587149635
     -0.0135106089
      0.1912155819
     -0.4574470500
      0.2144925581
      0.0312323264
      0.3302525971
     -0.5279830519
      0.2052150554
      0.1587125027
     -0.0918283934
     -0.1982717065
      0.0159840817
      0.2442497047
      0.0610529811
      0.1877284740
      0.6842135409
      0.2535363043
      0.0003766710
      0.4031770472
     -0.5253674816
     -0.1231316058
     -0.5261108054
     -0.3179891706
      0.2436759009
     -0.1776759159
      0.4428761672
      0.1224082712
      0.0593790955
      0.3781387201
     -0.2281700171
     -0.1301793701
     -0.0489679875
     -0.5010238747
     -0.1366377566
      0.0087731675
      0.4077640616
     -0.1695047899
      0.0196926423
     -0.5359298958
     -0.0072366778
     -0.2148585963
     -0.6499979913
      0.0091646624
      0.0426792432
     -0.0239872453
     -0.5577348187
     -0.3338121102
     -0.1686724173
     -0.0439821128
     -0.1347548225
     -0.4452282052
      0.1062291746
     -0.0713747429
     -0.2758783722
      0.1544738575
     -0.0880117208
     -0.0482903029
      0.2506330594
     -0.2782294550
     -0.4804290697
     -0.1597319039
      0.1157034780
     -0.3169705244
     -0.0159682088
     -0.2884650680
      0.0480366682
     -0.5741082807
     -0.1880255618
     -0.3029460639
     -0.5833032879
     -0.1113117034
     -0.1389617255
     -0.4428719699
      0.0041304042
      0.9225781312
      0.0660177515
     -0.6853851720
      1.1950447980
      0.0020359121
      0.3254952404
     -0.1191784352
      0.1994289622
      0.2634212247
      0.1800686346
     -0.3870087736
      0.1470295225
     -0.1374577539
      0.1389916760
     -0.0136789909
     -0.2366435527
      0.4612104712
      0.2879342325
      0.1387437179
      0.1898946413
     -0.1073439338
      0.3175864823
     -0.0722232246
      0.2026719124
      0.1964879772
     -0.0377032262
     -0.1589790916
     -0.3173053768
      0.1914828586
      0.1457532417
     -0.1521615815
      0.0847727399
      0.2911934371
     -0.0688758762
     -0.2947161024
      0.0149427980
     -0.2641529570
     -0.4761164686
     -0.2123215415
     -0.0226632822
      0.3308706814
      0.1533929867
      1.0679939407
     -0.0109301475
      0.4088333775
      0.0704332616
      0.4826833587
      0.3379895387
     -0.2540402625
     -0.2045686071
     -0.5612723429
      0.0777244008
     -0.2385784420
     -0.3334926626
      0.0135980241
      0.3707866491
      0.0602740065
      0.1303836803
      0.1238783050
     -0.1171493805
     -0.0368740719
     -0.4782805151
     -0.4352133020
     -0.1240772455
     -0.3018220873
      0.3885713464
     -0.1471989992
      0.0370815184
      0.0469556841
     -0.5543732819
     -0.2639139272
     -0.3390326949
     -0.1622432526
      0.2023902375
     -0.4375854760
      0.0727316921
     -0.0811615501
     -0.0656531564
     -0.1041159043
     -0.1710447497
     -0.1772541899
      0.0039153815
      0.1634480917
     -0.2962577684
     -0.0459407641
     -0.0134638604
      0.2922817391
     -0.0956895698
     -0.1853416888
      0.1797815834
      0.0919015069
      0.2515265238
      0.0006404544
     -0.2786619344
      0.3160402005
     -0.1926467344
     -0.5252079471
      0.2067646228
      0.2210778616
     -0.5520511462
     -0.0444874831
     -0.0690742139
     -0.0784663194
      0.1127622545
      0.4331408006
      0.2726676085
     -0.0802197072
     -0.0261306256
     -0.0372646327
     -0.1912959383
      0.2155248358
      0.1355558787
      0.0805572300
      0.7352130024
     -0.0569617902
     -0.2561533524
     -0.4644050219
     -0.2413391008
      0.0397043054
     -0.4728495459
     -0.0315880742
      0.4415244842
      0.6051032970
      0.4960193366
     -0.2111082454
      0.0648776940
      0.5419078047
      0.1269819909
      0.0443366023
     -0.1989981830
      0.1481515286
     -0.6911364410
      0.3082150912
     -0.4236934859
      0.0962993237
     -0.4611843284
      0.0400852144
     -0.0443631721
      0.6301926816
     -0.0221753078
      1.0117869109
     -0.4219655517
      0.1254368443
     -0.0092672003
      0.5029334761
     -0.0221054546
     -0.0530971515
      0.3423012288
      1.2740946414
     -0.2606298691
      0.2614230632
      0.0260462571
      0.1261585158
      0.3759460940
     -0.3101344742
     -0.2351342408
     -0.2795646834
     -0.0129758930
      0.2140726801
     -0.0553518771
     -0.0714877718
     -0.0110240404
     -0.0903903936
     -0.5861397910
     -0.1696191817
      0.0473351739
     -0.3952655343
      0.3735559984
      0.0379644185
     -0.2937159788
      0.0458961833
     -0.0067100442
      0.2648676783
     -0.1367354061
      0.0692986987
      0.1252033900
      0.2677910063
     -0.3924808030
     -0.5330453311
     -0.1901015196
     -0.0587524345
     -0.9215659378
     -0.0372952680
     -0.2501548370
     -0.1603872025
      0.4440102012
      0.1026207853
      0.2413376379
      0.2489902247
     -0.3014651788
     -0.1041764686
      0.1201750610
      0.3875952202
      0.1463782544
     -0.1793285899
      0.4723378951
      0.5285274830
      0.4254738093
      0.0675806750
      0.3286390218
     -0.2614636622
     -0.0339661832
     -0.0650217438
      0.3690152776
      0.2814634809
      0.1299434919
      0.0412872171
     -0.5193116024
     -0.3153336312
      0.2311876467
     -0.6094276892
     -0.9137185820
     -0.1274339664
     -0.3667375086
     -0.2154984802
      0.2008005557
     -0.0599639794
     -0.0022148679
     -0.2017471101
     -0.3277547601
     -0.2884297397
     -0.1035993047
     -0.2322156374
      0.2514845018
     -0.3313983857
      0.0195754041
      0.4485588814
      0.3677777234
      0.0509204958
      0.2212269341
     -0.1689466389
     -0.1271468766
     -0.1670075005
      0.3982803996
      0.0861003564
      0.0164025694
      0.1487806971
     -0.5988607781
     -0.1807852557
      0.1530566288
     -0.4391335094
     -0.3388981044
     -0.3418771688
     -0.1750696795
     -0.0608840329
      0.2629560539
     -0.0382017978
     -0.0670453951
     -0.1800191278
     -0.4047267309
     -0.3345823178
     -0.0049679495
      0.1465540719
      0.5992529627
     -0.0777288412
     -0.0367891277
     -0.1048460547
     -0.2122248435
      0.1948870549
      0.1592066317
     -0.0009359602
      0.2318247119
     -0.4168398303
      0.0242940023
      0.3193236248
     -0.0166342345
     -0.6851048370
     -0.7149373838
     -0.3068874619
     -0.3542423105
      0.1823129015
     -0.1656064479
      0.4867238392
      0.0292618908
      0.9061142309
     -0.1791007393
     -0.6058805423
     -0.1123665275
     -0.1951464389
      0.4710136993
      0.2079194617
     -0.5247450600
      0.0723862975
      0.0221021122
     -0.2996351663
      0.3553730253
      0.3667452406
      0.1106696302
      0.4417014822
      0.3324961025
     -0.1368428827
     -0.3763520783
     -0.0188825906
     -0.1910440176
      0.2821968460
      0.0012223616
     -0.2719769082
      0.3659861884
      0.9055493995
      0.0455668137
      0.1215411566
      0.0084552363
      0.4465622437
      0.3695827993
      0.1864161294
     -0.0368602515
      0.0412226871
     -0.1173410161
      0.0596824928
      0.1616843189
     -0.1196837049
     -0.2951769380
     -0.0429501314
      0.1304804374
     -0.0595375769
     -0.1893774288
     -0.2702284662
     -0.7627192740
      0.2744363483
      0.2495738921
      0.1031769930
     -0.3262156494
     -0.1102458804
      0.2092706444
      0.0907140696
      0.2603112689
     -0.1332819389
     -0.1693012214
      0.0541566188
      0.0726115222
      0.1405412144
     -0.0415055352
     -0.2618144833
     -0.4086840724
      0.1538521042
     -0.3105470608
      0.0461013787
      0.0145247924
      0.0210175727
     -0.1270426408
     -0.1298866544
     -0.0560017704
      0.2559494909
      0.4861234285
     -0.0054882973
      0.5021794499
      0.5741307793
      0.4815470270
     -0.0098312771
      0.3170062493
     -0.1079821638
     -0.1229509891
     -0.3358312574
      0.1894450386
     -0.0123998884
      0.1905447954
      0.1220682895
     -0.1676134466
     -0.0540409616
      0.1467585217
      0.5892952127
      0.1614132049
     -0.0517004052
     -0.5314377341
      0.5354443966
     -0.0589936742
      0.3596314729
      0.2079620777
     -0.2859804140
     -0.1323246965
     -0.2904470866
     -0.2568703918
     -0.1958192835
      0.0032412852
     -0.1559622428
      0.1449491818
      0.3989743739
     -0.1469727882
      0.0254502654
      0.0259978732
      0.0922440020
      0.3352143028
      0.0155159269
      0.1076114325
     -0.0996379284
      0.1320599842
      0.2072838000
      0.0394163136
     -0.4799746282
      0.1738074807
      0.5988479242
     -0.0949028813
      0.3891192159
     -0.4094171847
      0.4865308951
     -0.1833058927
      0.3571964707
      0.2559388288
     -0.1231032816
      0.1908294825
      0.0166403776
     -0.2171524343
      0.1802445255
     -0.1322470599
      0.0790401930
     -0.1084612675
      0.8628487493
     -1.0595590364
      0.0275640259
      0.1373029549
      0.3776858993
      0.4773321152
      0.4824592956
     -0.5701279805
     -0.0374900438
      0.0845340915
      0.6237892346
      0.2833609241
     -0.3239160641
      0.3085381498
      0.5261479114
      0.0346460239
      0.4615940295
     -0.5720052798
      0.1148640863
     -0.3960033746
      0.4560365548
      0.1382536072
      0.1680006106
     -0.2833748134
     -0.4872582041
      0.0754550334
      0.3817200223
      0.6330482980
      0.0198219446
      0.0607768953
      0.4105613342
      0.0711105223
     -0.7286993235
      0.2712261940
      0.3441433053
      0.0789477639
      0.0842316179
     -0.1413404042
      0.1246450683
      0.0757193321
      0.6544239209
      0.1092506193
     -0.5998700480
      0.7988061053
      0.1995965563
      0.0660302738
      0.4154342360
     -0.6012761594
     -0.0430185337
      0.1595332333
      0.6619415014
      0.1430366324
      0.3817803411
     -1.0302182122
      0.3071057088
     -0.2921254921
     -0.0629823706
      0.0654738571
      0.0682196414
     -0.5814105773
     -0.2578691751
      0.4199547456
      0.4070035235
     -0.3873943848
     -0.2644287301
     -0.0552666433
      0.3469787263
     -0.1779966106
      0.1194448773
     -0.4950529390
      0.1543172769
      0.5679136772
     -0.0812050054
      0.4282638115
      0.4977194587
      0.3508908801
     -0.1520174661
      0.0367668080
      0.3411374376
     -0.0429940517
      0.0744101731
      0.0839958053
      0.0239436723
     -0.3376305683
      0.5901042811
      0.0537353612
     -0.2051422984
      0.5482851014
     -0.5176295571
     -0.3602967739
     -0.2848992747
      0.1754758396
     -0.1350705219
      0.0281276929
     -0.0150616449
      0.3854493721
     -0.0029131471
      0.1862493452
     -0.5385704765
      0.2239793951
      0.0979775254
     -0.0951022963
      0.2829976377
     -0.4791084865
     -0.2039192431
     -0.3589691634
      0.6053493729
      0.3630855427
      0.3286293193
      0.3144217054
      0.0601739102
     -0.1600770960
     -0.5138372914
     -0.1656280981
      0.1044163942
      0.4225504489
      0.3966229651
      0.1781486729
     -0.1411018293
     -0.3209499668
      0.0230719390
      0.0402324102
     -0.3472222214
      0.2632342323
     -0.2061033338
      0.0568343293
     -0.4191418894
     -0.0471003194
     -0.2517809298
      0.2096046567
      0.1162157092
      0.1929657639
      0.1643975426
     -0.5124252325
      0.0602485089
     -0.3135392420
      0.3856679341
      0.1377184466
      0.4535415265
      0.2309989430
     -0.0985754082
      0.1635349011
     -0.7044131024
      0.1578558557
     -0.3991555862
     -0.2632630539
      0.4336227360
     -0.0991744852
     -0.1328789053
      0.1221975110
      0.0752578510
     -0.6394240824
     -0.1448617101
      0.4173236444
      0.1169380116
     -0.5458525324
     -0.0116231813
     -0.0527414812
      0.4843264991
     -0.0992634018
     -0.0045215000
     -0.0978951667
      0.1097256419
      0.0105333622
      0.3149633069
     -0.0873652485
     -0.2566769932
      0.1007639835
      0.2319269073
     -0.0127947862
     -0.1468516528
      0.0237431354
     -0.7292881212
      0.7090533974
     -0.0581572522
      0.0318545842
     -0.1630005114
      0.5486094606
     -0.1656293164
      0.3619445448
     -0.3724062691
      0.5336967342
      0.0430874708
     -0.4202950631
      0.2115223161
     -0.2003106822
      0.1893283920
     -0.4204595070
     -0.7589946538
      0.0564482553
      0.3259549225
      0.0049983244
     -0.2829992714
      0.2782388059
     -0.2453903198
     -0.5008843612
     -0.2134619884
     -0.3182092569
      0.0699311455
      0.5550611698
     -0.0590825977
      0.0391611403
     -0.5506880392
      0.2266895287
      0.1212454671
     -0.1657367401
      0.1370038960
     -0.0369566186
      0.4008216760
      0.0346481384
      0.0989944850
     -0.2307099358
      0.0608336021
     -0.0180672015
     -0.0321633631
      0.4386667151
      0.4370578920
      0.2543159853
      0.3590249225
      0.0101170690
     -0.2995961187
     -0.3755240970
     -0.3852774851
      0.1429629597
     -0.1360104964
      0.1105865950
      0.6019349561
      0.3893704348
      0.1573627130
     -0.2460805035
     -0.8539420057
     -0.2685958581
      0.2030576026
     -0.0588250855
     -0.1744796332
      0.0423310480
      0.5806534922
     -0.3929123373
      0.0491934436
     -0.0991231878
     -0.2182008394
      0.3139626308
     -0.1670246803
      0.2082937993
      0.3207656984
     -0.3250480231
      0.0646967205
      0.0685721680
     -0.1738512861
     -0.1661066416
     -0.0232239491
      0.1013045651
      0.3774539922
     -0.1372193303
     -0.0806215251
     -0.1840134769
     -0.3178035448
     -0.2084125311
     -0.1511647768
     -0.2288602075
     -0.1608712871
      0.1469859325
     -0.0645754878
     -0.2440330496
     -1.0552912527
     -0.1073439562
      0.3626789896
      0.9345202459
      0.8492604455
     -0.7528149622
      0.7154505848
     -0.4614142733
     -0.0801140532
      0.1274049341
     -0.0515831832
     -0.4047845259
      0.6160741474
      0.9217171355
      0.0528520150
      0.0717922965
     -0.4399128806
     -0.7484308841
      0.0737227003
     -0.5644635682
     -0.2908889295
     -0.1383434493
     -0.2929582648
      0.7996667016
     -0.0582737532
     -0.4171103021
      0.5036854050
     -0.3590619090
      0.8255601469
      0.4750111446
      0.2711029359
      1.0070976599
     -0.7230111501
      0.3188212093
      0.3414721459
     -0.2372752430
     -0.6161945238
      0.9477621805
      0.0941982932
     -0.7098853723
     -0.0076379135
     -0.6181476106
      0.0453897910
      1.2053880083
     -0.2170652802
      0.0292463853
      0.2690785285
     -0.4092048485
      1.3138142918
      0.6609303573
     -0.5613005031
     -0.0396827776
     -0.0301938551
     -0.3419226913
     -0.2453357892
     -0.4559183450
     -1.2667592798
     -0.2530551504
      0.3243072747
     -0.3630380522
     -0.0671548684
     -0.5792894165
     -0.2686287662
      0.2083953585
      0.2993843386
     -0.2397348810
     -0.3560466183
     -0.9957967381
     -0.2789753187
      0.7045043238
      0.5970938491
     -0.0170230311
      0.3015719184
      0.1720838949
     -0.5757672675
     -0.9203300774
     -0.9251104282
      0.3980536579
     -0.0057196074
     -0.8621649958
     -0.4398658294
     -0.2727465017
     -0.2252795422
      0.6651767181
     -0.2563284697
      0.5762838747
     -0.7095369213
     -0.3900023452
     -0.0950156585
      0.9666894692
     -0.3941794718
      0.8742463736
      0.0594850463
      0.8932219425
     -0.0218470496
      0.9363822858
     -0.1553809482
     -0.4794689794
      0.7304721598
      0.0000529745
     -0.3305910040
     -0.2688065461
      0.3833601804
      0.5896375098
     -0.0687967489
      0.3516913340
     -0.0139037797
      0.0875700640
      1.0186112605
     -0.3985094110
     -0.2105358239
     -0.9368508166
      0.3908479041
     -0.2647512453
      0.0843743840
      0.8994693498
     -0.1803046560
      1.0446429475
      0.4542323566
     -0.8526213459
     -0.5943649257
      0.2595569428
      0.4208239182
     -0.1874164512
     -0.4968945805
      0.7673751914
     -0.4699133690
     -0.7891981772
      0.6919930736
     -1.2077158960
     -0.3577668281
     -1.0168041471
      0.8451005061
      0.1192172482
     -0.0234966811
     -0.8104460512
      0.7647788414
     -0.4021369345
      0.0469325697
     -0.2857242344
      0.3342672028
      1.1188459004
     -0.9173391651
      0.0842903413
     -0.5381930565
      0.2168808588
     -0.4936044365
     -0.8906781388
     -0.2109887727
     -0.0849294431
      0.4690809127
     -0.1856507650
     -0.3200631088
     -0.0082378661
     -0.5599852252
     -0.1281271996
     -0.1090520827
     -0.5531019450
     -0.8489225024
      0.6354820463
      0.7291606053
      0.8935144382
      0.7781912530
     -0.2396980294
     -0.4747437987
     -0.1042253393
     -0.1749525172
     -0.1082040833
     -1.3986935705
     -1.0309010595
     -0.4534020875
      0.7820565418
      0.0188410622
      0.8092838371
     -0.5808183551
      0.5626238450
      0.4530464255
     -0.1388847426
     -0.7503927477
     -0.6226681313
     -0.1637272341
     -1.0841025522
     -0.2802901217
      0.2025741516
      0.0388457885
      0.6213237852
     -0.7035162193
     -0.1261072996
     -0.2782274855
      0.4555883075
     -0.3062346073
     -0.6025342992
     -0.4228781469
     -0.3276754863
      0.7873190851
      0.6273654885
      0.1397159000
      0.3061767427
     -0.1178069856
      0.6335361555
     -0.3856879222
      0.5625691105
      0.7119203596
     -0.0137069406
      0.1634438412
     -0.5933189428
      0.0479977701
      0.1338350368
     -0.2711036716
     -0.3614665529
      0.1267587067
      0.5688265002
      0.0403357228
     -1.2815140456
     -0.2977072376
     -0.7665764056
      0.0325783484
     -0.8284442245
     -0.4720768939
     -0.0693753082
      0.4914928631
     -0.8501381837
      0.5295433103
     -0.2285264626
      0.3708718559
     -0.7327415012
     -0.4556646159
     -0.1694817212
      0.3979227543
      0.8464669997
     -0.1406938869
      1.5177670370
     -0.1634703921
      0.2775509223
      0.8148752729
     -0.4252507678
     -0.0807819413
      0.6166007560
      0.0533802150
     -0.4080826027
      0.9940947904
      0.1201414189
      1.1466209014
     -0.4521774680
     -0.5938686832
     -0.5144252381
     -0.6784489321
     -1.0439549813
      1.4689188282
      1.2151965562
     -1.4853736155
     -0.7052243489
     -1.4355995656
      0.0611971710
      1.7033849718
     -0.0069111229
      0.0245204970
      0.2108240249
      0.1173693803
     -0.0256098708
      0.0273761317
      0.0282616867
     -0.1542378855
      0.0017945073
      0.0242561671
     -0.0148283213
      0.0778062697
      0.0795825881
      0.0089330591
      0.0138911145
     -0.2799991135
